digraph Tree {
node [shape=box] ;
0 [label="X[0] <= -0.739\ngini = 0.482\nsamples = 37\nvalue = [15, 22]"] ;
1 [label="gini = 0.0\nsamples = 5\nvalue = [5, 0]"] ;
0 -> 1 [labeldistance=2.5, labelangle=45, headlabel="True"] ;
2 [label="X[1] <= 1.53\ngini = 0.43\nsamples = 32\nvalue = [10, 22]"] ;
0 -> 2 [labeldistance=2.5, labelangle=-45, headlabel="False"] ;
3 [label="X[7] <= -0.29\ngini = 0.366\nsamples = 29\nvalue = [7, 22]"] ;
2 -> 3 ;
4 [label="X[10] <= 0.5\ngini = 0.142\nsamples = 13\nvalue = [1, 12]"] ;
3 -> 4 ;
5 [label="gini = 0.0\nsamples = 12\nvalue = [0, 12]"] ;
4 -> 5 ;
6 [label="gini = 0.0\nsamples = 1\nvalue = [1, 0]"] ;
4 -> 6 ;
7 [label="X[1] <= -0.282\ngini = 0.469\nsamples = 16\nvalue = [6, 10]"] ;
3 -> 7 ;
8 [label="gini = 0.0\nsamples = 5\nvalue = [0, 5]"] ;
7 -> 8 ;
9 [label="X[5] <= 0.325\ngini = 0.496\nsamples = 11\nvalue = [6, 5]"] ;
7 -> 9 ;
10 [label="gini = 0.0\nsamples = 4\nvalue = [4, 0]"] ;
9 -> 10 ;
11 [label="X[6] <= 0.249\ngini = 0.408\nsamples = 7\nvalue = [2, 5]"] ;
9 -> 11 ;
12 [label="X[5] <= 1.123\ngini = 0.444\nsamples = 3\nvalue = [2, 1]"] ;
11 -> 12 ;
13 [label="gini = 0.0\nsamples = 2\nvalue = [2, 0]"] ;
12 -> 13 ;
14 [label="gini = 0.0\nsamples = 1\nvalue = [0, 1]"] ;
12 -> 14 ;
15 [label="gini = 0.0\nsamples = 4\nvalue = [0, 4]"] ;
11 -> 15 ;
16 [label="gini = 0.0\nsamples = 3\nvalue = [3, 0]"] ;
2 -> 16 ;
}